{"graph_0": {"_type": "graph-file", "path": "media/graph/graph_0_summary_1b28c617.graph.json", "sha256": "1b28c6171110fb429c3b3725486707729cf9e7217dc1057ace2280486ddd904e", "size": 2039}, "train_loss": 0.0, "train_acc": 99.80271464646465, "_runtime": 113, "_timestamp": 1623053921, "_step": 1979, "gradients/fc2.bias": {"_type": "histogram", "values": [1.0, 0.0, 0.0, 0.0, 0.0, 0.0, 0.0, 0.0, 0.0, 0.0, 0.0, 0.0, 0.0, 0.0, 0.0, 0.0, 0.0, 0.0, 0.0, 0.0, 0.0, 0.0, 0.0, 0.0, 0.0, 0.0, 0.0, 0.0, 0.0, 0.0, 0.0, 0.0, 8.0, 0.0, 0.0, 0.0, 0.0, 0.0, 0.0, 0.0, 0.0, 0.0, 0.0, 0.0, 0.0, 0.0, 0.0, 0.0, 0.0, 0.0, 0.0, 0.0, 0.0, 0.0, 0.0, 0.0, 0.0, 0.0, 0.0, 0.0, 0.0, 0.0, 0.0, 1.0], "bins": [-1.6971731311987703e-11, -1.6441365630059934e-11, -1.591099821340869e-11, -1.5380630796757444e-11, -1.4850265114829675e-11, -1.4319898565540168e-11, -1.378953201625066e-11, -1.3259165466961154e-11, -1.2728798917671647e-11, -1.219843236838214e-11, -1.1668065819092632e-11, -1.1137699269803125e-11, -1.0607332720513618e-11, -1.0076966171224111e-11, -9.546599621934604e-12, -9.016233072645097e-12, -8.48586652335559e-12, -7.955499974066083e-12, -7.425133424776575e-12, -6.894766875487068e-12, -6.364400326197561e-12, -5.834033776908054e-12, -5.303667227618547e-12, -4.77330067832904e-12, -4.242934129039533e-12, -3.712567579750026e-12, -3.1822010304605186e-12, -2.6518344811710115e-12, -2.1214679318815044e-12, -1.5911013825919973e-12, -1.0607348333024902e-12, -5.303682840129831e-13, 0.0, 5.303665492895071e-13, 1.0607330985790142e-12, 1.5910996478685213e-12, 2.1214661971580284e-12, 2.6518327464475355e-12, 3.1821992957370426e-12, 3.71256584502655e-12, 4.242932394316057e-12, 4.773298943605564e-12, 5.303665492895071e-12, 5.834032042184578e-12, 6.364398591474085e-12, 6.894765140763592e-12, 7.4251316900531e-12, 7.955498239342607e-12, 8.485864788632114e-12, 9.01623133792162e-12, 9.546597887211128e-12, 1.0076964436500635e-11, 1.0607330985790142e-11, 1.113769753507965e-11, 1.1668064084369156e-11, 1.2198430633658663e-11, 1.272879718294817e-11, 1.3259163732237678e-11, 1.3789530281527185e-11, 1.4319896830816692e-11, 1.48502633801062e-11, 1.5380630796757444e-11, 1.5910996478685213e-11, 1.6441362160612982e-11, 1.6971729577264227e-11]}, "gradients/fc2.weight": {"_type": "histogram", "values": [1.0, 1.0, 0.0, 0.0, 1.0, 0.0, 0.0, 1.0, 0.0, 3.0, 1.0, 1.0, 2.0, 0.0, 0.0, 2.0, 0.0, 2.0, 1.0, 3.0, 0.0, 1.0, 1.0, 2.0, 1.0, 0.0, 5.0, 1.0, 0.0, 0.0, 2.0, 11.0, 245.0, 2.0, 0.0, 0.0, 1.0, 5.0, 0.0, 1.0, 2.0, 1.0, 1.0, 0.0, 3.0, 1.0, 2.0, 0.0, 2.0, 0.0, 0.0, 2.0, 1.0, 1.0, 3.0, 0.0, 1.0, 0.0, 0.0, 1.0, 0.0, 0.0, 1.0, 1.0], "bins": [-9.186900684632349e-10, -8.899809778029066e-10, -8.612719426537296e-10, -8.325628519934014e-10, -8.038538168442244e-10, -7.751447261838962e-10, -7.464356910347192e-10, -7.17726600374391e-10, -6.89017565225214e-10, -6.603084745648857e-10, -6.315994394157087e-10, -6.028903487553805e-10, -5.741813136062035e-10, -5.454722229458753e-10, -5.167631877966983e-10, -4.8805409713637e-10, -4.5934503423161743e-10, -4.306359713268648e-10, -4.019269084221122e-10, -3.732178455173596e-10, -3.44508782612607e-10, -3.1579971970785436e-10, -2.8709062904752614e-10, -2.5838159389834914e-10, -2.2967251711580872e-10, -2.009634542110561e-10, -1.722543913063035e-10, -1.4354531452376307e-10, -1.1483625855790436e-10, -8.612718871425784e-11, -5.741812580950523e-11, -2.8709062904752614e-11, 0.0, 2.870906463947609e-11, 5.741812927895218e-11, 8.612719565315174e-11, 1.1483625855790436e-10, 1.4354532840155088e-10, 1.722543913063035e-10, 2.009634542110561e-10, 2.2967251711580872e-10, 2.5838159389834914e-10, 2.8709065680310175e-10, 3.1579971970785436e-10, 3.44508782612607e-10, 3.732178455173596e-10, 4.019269084221122e-10, 4.306359713268648e-10, 4.5934503423161743e-10, 4.8805409713637e-10, 5.167631877966983e-10, 5.454722229458753e-10, 5.741813136062035e-10, 6.028903487553805e-10, 6.315994394157087e-10, 6.603084745648857e-10, 6.89017565225214e-10, 7.177266558855422e-10, 7.464356910347192e-10, 7.751447816950474e-10, 8.038538168442244e-10, 8.325629075045526e-10, 8.612719426537296e-10, 8.899810333140579e-10, 9.186900684632349e-10]}, "gradients/fc1.bias": {"_type": "histogram", "values": [1.0, 0.0, 0.0, 1.0, 0.0, 0.0, 0.0, 0.0, 0.0, 1.0, 1.0, 2.0, 1.0, 0.0, 3.0, 0.0, 0.0, 0.0, 0.0, 2.0, 1.0, 0.0, 0.0, 1.0, 2.0, 0.0, 0.0, 1.0, 0.0, 1.0, 1.0, 1.0, 0.0, 1.0, 0.0, 1.0, 0.0, 0.0, 0.0, 0.0, 2.0, 0.0, 0.0, 0.0, 2.0, 0.0, 0.0, 2.0, 0.0, 0.0, 0.0, 1.0, 1.0, 0.0, 0.0, 0.0, 1.0, 0.0, 0.0, 0.0, 0.0, 0.0, 0.0, 1.0], "bins": [-4.709094659355317e-12, -4.563926059991674e-12, -4.4187578943089e-12, -4.273589294945257e-12, -4.128421129262483e-12, -3.98325252989884e-12, -3.8380843642160656e-12, -3.6929157648524225e-12, -3.5477475991696483e-12, -3.4025792166464397e-12, -3.257410834123231e-12, -3.1122424516000224e-12, -2.967074069076814e-12, -2.821905686553605e-12, -2.6767373040303966e-12, -2.5315687046667534e-12, -2.386400322143545e-12, -2.241231939620336e-12, -2.0960635570971275e-12, -1.950895174573919e-12, -1.8057267920507103e-12, -1.6605584095275017e-12, -1.5153899185840758e-12, -1.3702215360608672e-12, -1.2250531535376585e-12, -1.07988477101445e-12, -9.347163884912413e-13, -7.89547951757924e-13, -6.443795692347154e-13, -4.992111867115068e-13, -3.540427499781895e-13, -2.088743674549809e-13, -6.370598493177226e-14, 8.146241114396352e-14, 2.266308072196993e-13, 3.7179921684796224e-13, 5.169675993711709e-13, 6.621359818943795e-13, 8.073044186276968e-13, 9.524728011509054e-13, 1.097641183674114e-12, 1.2428095661973226e-12, 1.3879779487205313e-12, 1.5331464396639571e-12, 1.6783148221871658e-12, 1.8234832047103744e-12, 1.968651587233583e-12, 2.1138199697567917e-12, 2.2589883522800003e-12, 2.404156734803209e-12, 2.5493251173264175e-12, 2.694493499849626e-12, 2.8396618823728348e-12, 2.9848302648960434e-12, 3.1299988642596865e-12, 3.2751670299424607e-12, 3.4203356293061038e-12, 3.5655040118293124e-12, 3.710672394352521e-12, 3.855840993716164e-12, 4.001009159398938e-12, 4.1461777587625814e-12, 4.2913459244453556e-12, 4.436514523808999e-12, 4.581682689491773e-12]}, "gradients/fc1.weight": {"_type": "histogram", "values": [1.0, 0.0, 1.0, 1.0, 0.0, 0.0, 2.0, 0.0, 0.0, 2.0, 4.0, 5.0, 3.0, 6.0, 8.0, 7.0, 11.0, 17.0, 14.0, 23.0, 35.0, 35.0, 52.0, 67.0, 74.0, 120.0, 140.0, 171.0, 247.0, 408.0, 720.0, 1512.0, 44460.0, 832.0, 391.0, 219.0, 148.0, 109.0, 78.0, 57.0, 50.0, 27.0, 35.0, 16.0, 13.0, 16.0, 5.0, 7.0, 4.0, 8.0, 2.0, 2.0, 1.0, 4.0, 2.0, 0.0, 1.0, 1.0, 0.0, 0.0, 0.0, 1.0, 0.0, 1.0], "bins": [-7.657383616077595e-10, -7.421327441470282e-10, -7.185271821974482e-10, -6.949215647367168e-10, -6.713159472759855e-10, -6.477103298152542e-10, -6.241047678656741e-10, -6.004991504049428e-10, -5.768935329442115e-10, -5.532879154834802e-10, -5.296823535339001e-10, -5.060767360731688e-10, -4.824711186124375e-10, -4.5886552890728183e-10, -4.3525993920212613e-10, -4.116543217413948e-10, -3.8804873203623913e-10, -3.6444314233108344e-10, -3.4083752487035213e-10, -3.1723193516519643e-10, -2.936263177044651e-10, -2.7002072799930943e-10, -2.464151105385781e-10, -2.2280952083342243e-10, -1.9920391725047892e-10, -1.7559831366753542e-10, -1.5199271008459192e-10, -1.2838710650164842e-10, -1.0478150985759882e-10, -8.117591321354922e-11, -5.757030963060572e-11, -3.396470604766222e-11, -1.0359102464718717e-11, 1.3246499383501309e-11, 3.6852101231721335e-11, 6.045770134521788e-11, 8.406330492816139e-11, 1.0766890157221098e-10, 1.3127450515515449e-10, 1.54880108738098e-10, 1.784857123210415e-10, 2.02091315903985e-10, 2.256969194869285e-10, 2.49302523069872e-10, 2.729081127750277e-10, 2.965137024801834e-10, 3.201193199409147e-10, 3.43724937401646e-10, 3.673305271068017e-10, 3.909361168119574e-10, 4.145417342726887e-10, 4.381473239778444e-10, 4.617529414385757e-10, 4.853585311437314e-10, 5.089641486044627e-10, 5.32569766065194e-10, 5.561753280147741e-10, 5.797809454755054e-10, 6.033865074250855e-10, 6.269921248858168e-10, 6.505977423465481e-10, 6.742033598072794e-10, 6.978089217568595e-10, 7.214145392175908e-10, 7.450201566783221e-10]}, "gradients/layer2.0.weight": {"_type": "histogram", "values": [1.0, 0.0, 0.0, 0.0, 1.0, 0.0, 1.0, 1.0, 3.0, 5.0, 4.0, 9.0, 10.0, 17.0, 17.0, 21.0, 35.0, 53.0, 53.0, 89.0, 89.0, 153.0, 255.0, 369.0, 725.0, 8889.0, 802.0, 363.0, 219.0, 132.0, 122.0, 88.0, 59.0, 48.0, 31.0, 29.0, 18.0, 16.0, 19.0, 8.0, 10.0, 6.0, 6.0, 5.0, 6.0, 3.0, 1.0, 1.0, 0.0, 1.0, 0.0, 0.0, 3.0, 1.0, 0.0, 0.0, 1.0, 0.0, 0.0, 0.0, 1.0, 0.0, 0.0, 1.0], "bins": [-7.458121897840897e-10, -7.167223481374663e-10, -6.876325620019941e-10, -6.585427203553706e-10, -6.294528787087472e-10, -6.00363092573275e-10, -5.712732509266516e-10, -5.421834092800282e-10, -5.130935676334047e-10, -4.840037259867813e-10, -4.549139120957335e-10, -4.258240982046857e-10, -3.9673425655806227e-10, -3.6764444266701446e-10, -3.3855462877596665e-10, -3.094647871293432e-10, -2.8037500099387103e-10, -2.512851871028232e-10, -2.221953454561998e-10, -1.9310553156515198e-10, -1.6401570379631636e-10, -1.3492587602748074e-10, -1.0583606213643293e-10, -7.674623436759731e-11, -4.765640659876169e-11, -1.8566582299373025e-11, 1.0523242000015642e-11, 3.961306282995736e-11, 6.870289059879298e-11, 9.77927183676286e-11, 1.268825322586764e-10, 1.5597236002751202e-10, 1.8506218779634764e-10, 2.1415201556518326e-10, 2.432418433340189e-10, 2.723316572250667e-10, 3.014214988716901e-10, 3.3051131276273793e-10, 3.5960112665378574e-10, 3.8869096830040917e-10, 4.17780782191457e-10, 4.468705960825048e-10, 4.759604377291282e-10, 5.050502238646004e-10, 5.341400655112238e-10, 5.632299071578473e-10, 5.923197488044707e-10, 6.214095349399429e-10, 6.504993765865663e-10, 6.795892182331897e-10, 7.086790043686619e-10, 7.377688460152854e-10, 7.668586876619088e-10, 7.959485293085322e-10, 8.250383154440044e-10, 8.541281570906278e-10, 8.832179432261e-10, 9.123077848727235e-10, 9.413976265193469e-10, 9.704874681659703e-10, 9.995771987902913e-10, 1.0286670404369147e-09, 1.0577568820835381e-09, 1.0868467237301616e-09, 1.115936565376785e-09]}, "gradients/layer2.0.bias": {"_type": "histogram", "values": [1.0, 0.0, 0.0, 0.0, 0.0, 0.0, 0.0, 0.0, 0.0, 0.0, 0.0, 1.0, 0.0, 1.0, 2.0, 0.0, 1.0, 1.0, 0.0, 0.0, 2.0, 0.0, 0.0, 0.0, 1.0, 2.0, 0.0, 0.0, 1.0, 3.0, 0.0, 2.0, 0.0, 0.0, 0.0, 1.0, 1.0, 1.0, 0.0, 1.0, 0.0, 1.0, 0.0, 1.0, 0.0, 1.0, 1.0, 1.0, 2.0, 0.0, 0.0, 1.0, 1.0, 0.0, 0.0, 0.0, 0.0, 0.0, 0.0, 0.0, 0.0, 0.0, 0.0, 1.0], "bins": [-5.448601205632064e-12, -5.312818327635194e-12, -5.177035015957454e-12, -5.0412521379605835e-12, -4.905468826282844e-12, -4.769685948285973e-12, -4.633902636608234e-12, -4.498119758611363e-12, -4.3623368806144924e-12, -4.226554002617622e-12, -4.090770690939882e-12, -3.954987812943012e-12, -3.819204501265272e-12, -3.683421623268401e-12, -3.5476385284310963e-12, -3.411855433593791e-12, -3.2760721219160516e-12, -3.1402890270787465e-12, -3.0045059322414414e-12, -2.8687228374041362e-12, -2.732939742566831e-12, -2.5971568645699605e-12, -2.4613737697326554e-12, -2.3255906748953503e-12, -2.1898075800580452e-12, -2.05402448522074e-12, -1.918241390383435e-12, -1.7824584039663471e-12, -1.646675309129042e-12, -1.510892214291737e-12, -1.375109227874649e-12, -1.239326133037344e-12, -1.1035426045191699e-12, -9.677595096818647e-13, -8.319764690546683e-13, -6.961934284274718e-13, -5.604103335901667e-13, -4.2462723875286157e-13, -2.888441981256651e-13, -1.530611574984686e-13, -1.7278062661163496e-14, 1.185050050710873e-13, 2.542880728033381e-13, 3.900711405355889e-13, 5.258542082678397e-13, 6.616373031051448e-13, 7.974203437323413e-13, 9.332033843595378e-13, 1.0689864791968429e-12, 1.204769574034148e-12, 1.340552668871453e-12, 1.476335655288541e-12, 1.612118750125846e-12, 1.7479018449631512e-12, 1.883684831380239e-12, 2.019467926217544e-12, 2.1552510210548492e-12, 2.2910341158921543e-12, 2.4268172107294594e-12, 2.5626003055667645e-12, 2.698383183563635e-12, 2.8341664952413748e-12, 2.9699493732382454e-12, 3.1057324680755505e-12, 3.2415155629128556e-12]}, "gradients/layer1.0.weight": {"_type": "histogram", "values": [2.0, 0.0, 0.0, 0.0, 3.0, 2.0, 2.0, 1.0, 1.0, 3.0, 2.0, 3.0, 0.0, 6.0, 2.0, 7.0, 5.0, 4.0, 7.0, 11.0, 11.0, 9.0, 13.0, 12.0, 5.0, 14.0, 7.0, 12.0, 5.0, 11.0, 8.0, 10.0, 18.0, 11.0, 54.0, 16.0, 10.0, 13.0, 11.0, 7.0, 10.0, 9.0, 4.0, 4.0, 6.0, 6.0, 5.0, 6.0, 4.0, 10.0, 4.0, 2.0, 2.0, 3.0, 2.0, 0.0, 2.0, 0.0, 1.0, 0.0, 0.0, 0.0, 1.0, 1.0], "bins": [-4.663561758988521e-10, -4.5269110682255587e-10, -4.390260655018352e-10, -4.2536099642553893e-10, -4.1169595510481827e-10, -3.98030886028522e-10, -3.843658169522257e-10, -3.7070077563150505e-10, -3.570357343107844e-10, -3.433706652344881e-10, -3.2970562391376745e-10, -3.160405548374712e-10, -3.023755135167505e-10, -2.8871044444045424e-10, -2.7504537536415796e-10, -2.613803340434373e-10, -2.47715264967141e-10, -2.3405019589084475e-10, -2.2038515457012409e-10, -2.067200854938278e-10, -1.9305504417310715e-10, -1.7938997509681087e-10, -1.657249198983024e-10, -1.5205986469979393e-10, -1.3839480950128547e-10, -1.24729754302777e-10, -1.1106469910426853e-10, -9.739963696686615e-11, -8.373458176835769e-11, -7.006952656984922e-11, -5.6404464432446844e-11, -4.2739409233938375e-11, -2.907438179100552e-11, -1.5409324857773576e-11, -1.7442679245416315e-12, 1.192079074341379e-11, 2.5585845941922258e-11, 3.925090114043073e-11, 5.29159632778331e-11, 6.658101847634157e-11, 8.024607367485004e-11, 9.391112887335851e-11, 1.0757618407186698e-10, 1.2124123927037544e-10, 1.3490630834667172e-10, 1.4857134966739238e-10, 1.6223641874368866e-10, 1.7590147394219713e-10, 1.895665291407056e-10, 2.0323158433921407e-10, 2.1689663953772254e-10, 2.305617086140188e-10, 2.4422674993473947e-10, 2.5789181901103575e-10, 2.7155688808733203e-10, 2.852219294080527e-10, 2.9888697072877335e-10, 3.125520398050696e-10, 3.262170811257903e-10, 3.3988215020208656e-10, 3.535471915228072e-10, 3.672122605991035e-10, 3.808773296753998e-10, 3.9454237099612044e-10, 4.082074400724167e-10]}, "gradients/layer1.0.bias": {"_type": "histogram", "values": [1.0, 0.0, 0.0, 0.0, 0.0, 1.0, 0.0, 0.0, 1.0, 0.0, 0.0, 1.0, 0.0, 0.0, 0.0, 1.0, 0.0, 0.0, 0.0, 0.0, 0.0, 1.0, 0.0, 0.0, 0.0, 0.0, 2.0, 0.0, 0.0, 0.0, 0.0, 0.0, 1.0, 0.0, 1.0, 0.0, 1.0, 0.0, 0.0, 0.0, 1.0, 0.0, 0.0, 0.0, 0.0, 1.0, 0.0, 0.0, 1.0, 0.0, 0.0, 0.0, 0.0, 0.0, 0.0, 0.0, 0.0, 0.0, 0.0, 0.0, 0.0, 0.0, 1.0, 1.0], "bins": [-2.482955030816414e-12, -2.2786178326128503e-12, -2.0742806344092868e-12, -1.8699434362057232e-12, -1.6656062380021597e-12, -1.4612689313783789e-12, -1.2569317331748153e-12, -1.0525945349712518e-12, -8.482573367676882e-13, -6.439201385641247e-13, -4.395829132555068e-13, -2.3524568794688894e-13, -3.0908489743325385e-14, 1.734287626703468e-13, 3.7776596087391034e-13, 5.821031590774739e-13, 7.864403572810374e-13, 9.90777555484601e-13, 1.1951147536881646e-12, 1.3994519518917281e-12, 1.6037891500952917e-12, 1.8081264567190725e-12, 2.0124635465024188e-12, 2.216800961546417e-12, 2.421137942909546e-12, 2.6254751411131094e-12, 2.829812339316673e-12, 3.0341495375202365e-12, 3.2384867357238e-12, 3.442824150767798e-12, 3.647161132130927e-12, 3.851498547174925e-12, 4.055835962218923e-12, 4.260173377262921e-12, 4.46451035862605e-12, 4.6688477736700484e-12, 4.8731847550331775e-12, 5.0775221700771755e-12, 5.281859151440305e-12, 5.486196566484303e-12, 5.690533547847432e-12, 5.89487096289143e-12, 6.099207944254559e-12, 6.303545359298557e-12, 6.507882340661686e-12, 6.712219755705684e-12, 6.916556737068813e-12, 7.120894152112811e-12, 7.325231567156809e-12, 7.529568982200807e-12, 7.733906397244805e-12, 7.938242944927065e-12, 8.142580359971063e-12, 8.346917775015061e-12, 8.55125519005906e-12, 8.75559173774132e-12, 8.959929152785318e-12, 9.164266567829316e-12, 9.368603982873314e-12, 9.572940530555574e-12, 9.777277945599572e-12, 9.98161536064357e-12, 1.0185952775687568e-11, 1.0390289323369828e-11, 1.0594626738413826e-11]}}